word2vec-google-news-300,husband,wife,father,mother,son,daughter,brother,sister,uncle,aunt,niece,nephew,grandmother,grandfather,acquaintance,ally,associate,colleague,counterpart,fellow,neighbor,patriot,confidant,companion,partner,supporter,member,follower,emigrant,foreigner,intruder,settler,stranger,visitor,vagrant,opposition,rival,opponent,adversary,competitor,invader,occupier,arab,beggar,blacks,crippled,disabled,jew,mexican,unemployed,native,elderly,indian,woman,chinese,pauper,animal,ape,bird,elephant,chicken,cow,dog,fish,pig,shark,bear,snake,monkey,lion,nature,forest,lake,mountain,ocean,reef,river,tree,sea,beach,island,coast,earth,planet
care,0.074016094,0.09880443,0.09526363,0.19729465,0.081434235,0.11972014,0.03885981,0.112620346,0.061546974,0.14786913,0.11716776,0.030581815,0.1894073,0.11051492,0.05492155,0.03045659,0.04913064,-0.04359505,-0.05700604,4.410443e-05,0.11528117,0.0643403,0.097500235,0.12330641,0.03655751,0.043199956,0.046646502,0.08850259,0.06511197,0.020808274,0.033579975,0.028723836,0.067939155,0.10550926,0.079697914,-0.009833775,-0.01341,0.02559073,0.007071716,0.06382998,-0.011607862,0.07595894,0.09091739,0.11342238,0.07420973,0.101373576,0.32236335,0.008462329,0.04732089,0.1552044,0.02562465,0.36435762,0.03325063,0.10393228,0.03694632,0.16306625,0.19174428,0.05386622,0.09498702,0.08911692,0.07326556,0.018097151,0.19691971,0.055156633,0.0383283,-0.01192645,0.13663776,0.09238386,-0.0005191464,0.08079201,0.15039389,0.08919495,0.017386708,0.03952378,0.028029049,0.033645194,-0.006950924,0.062343072,0.013477411,0.07728058,0.08274447,0.024364883,0.0684153,0.06559435
cares,0.093429126,0.121771455,0.11787561,0.14857833,0.13267511,0.11974625,0.12684259,0.15031582,0.10496029,0.121583834,0.14114355,0.14109235,0.14177881,0.10152091,0.07664408,0.06662085,0.08608101,0.021576878,0.043567955,0.10919895,0.16259839,0.2159739,0.12067926,0.02868399,0.019715043,0.18171687,0.1619312,0.16408482,0.05870786,0.12933877,0.03675798,-0.0186915,0.24765524,0.09559708,0.14493586,0.040493447,0.034994874,0.07638279,0.032340236,0.08786475,0.009163815,0.09529893,0.20898606,0.16130777,0.11424092,0.13910003,0.2410292,0.1826911,0.14172374,0.16663457,0.070316926,0.16824767,0.17936155,0.11658312,0.14488956,0.20059076,0.101591125,0.04507738,0.0948353,0.09269275,0.08090928,0.06931122,0.16624086,0.091125116,0.10164511,-3.7590675e-05,0.11705303,0.106143914,0.0820657,0.06648505,0.11307407,0.022068461,0.056482706,0.017147658,0.070503674,0.016458735,0.032874286,0.043587685,0.021349324,0.077484444,0.08338526,0.027002316,0.20127128,0.22286317
caring,0.2468582,0.21663384,0.24673341,0.35082546,0.2212231,0.25106037,0.18159387,0.22947632,0.20212294,0.2942084,0.26502958,0.15746492,0.30055588,0.21556553,0.15167706,0.11907689,0.10056831,0.0800357,-0.031112323,0.14669502,0.26588896,0.24285206,0.2166498,0.21813995,0.08516586,0.116757445,0.09529354,0.15894105,0.07429104,0.0841695,0.072966486,0.086725675,0.14315802,0.097144864,0.22263671,0.020183258,-0.035844624,0.029188517,0.066886805,0.050179068,0.01966454,0.13959484,0.07106573,0.1625047,0.09517165,0.09779515,0.34985593,0.0016267324,0.026780628,0.22872038,0.090648286,0.3916587,0.056350347,0.23541857,0.0066771694,0.13594243,0.25767806,0.11307776,0.13791794,0.12875888,0.04362251,0.09279017,0.28144106,0.053835887,0.09523063,0.058392055,0.16769913,0.10437149,0.060787514,0.13347821,0.25155166,0.073294744,0.0852134,0.05837815,0.12794429,0.0947176,0.07672411,0.12504153,0.09708905,0.07713928,0.093312286,0.024080416,0.25812456,0.20984116
cared,0.21629031,0.19779697,0.26670006,0.30257902,0.22233082,0.21618742,0.20941019,0.21189284,0.24917068,0.2849681,0.24586135,0.19434388,0.30247608,0.2796625,0.13182558,0.03909483,0.08569977,0.06213643,-0.03021755,0.16394874,0.18413942,0.20069037,0.19797584,0.13917437,0.001537067,0.13318342,0.101755686,0.13959897,0.08349962,0.077410445,0.054568186,0.018978976,0.1547564,0.055509843,0.1547487,0.01936198,-0.023794353,0.02172482,-0.015704105,0.012894157,-0.026636273,0.048738874,0.09389583,0.107468605,0.17711823,0.14273101,0.29386222,0.13125758,0.06484062,0.13960266,0.112481475,0.23400152,0.0798978,0.137185,0.084045246,0.2047129,0.16392303,0.086167865,0.13040575,0.12152812,0.08200017,0.068016514,0.23073888,0.0941784,0.08620464,0.053053237,0.1252804,0.15066513,0.08948004,0.077494726,0.10837136,0.05186339,0.090476915,0.011189668,0.0628585,0.05188218,0.054308813,0.10093543,0.071863264,0.06352838,0.08961108,0.015553552,0.15520447,0.16267997
nurturing,0.082717076,0.07278878,0.16251259,0.20651679,0.1260333,0.15938829,0.053436887,0.15062699,0.10059367,0.12433995,0.14720924,0.060611375,0.13718769,0.088481836,0.09078661,0.14066106,0.12684664,0.010049366,0.0017013225,0.048886545,0.10171449,0.0981355,0.18430735,0.07353292,0.174106,0.13341373,0.067594595,0.14904857,0.06921812,0.061023608,0.016457338,0.045984324,0.109562814,0.03219574,0.09546728,-0.017097753,0.019782558,-0.04120189,0.06779091,0.03586659,0.06853963,0.11083886,0.008534215,0.03366743,0.041127935,0.042338908,0.07313562,-0.052757148,-0.018124092,0.0869429,0.11310089,0.05924725,0.030524928,0.077218235,-0.014957641,0.024727767,0.14536878,0.09682298,0.08623812,0.0665033,0.0339124,0.007280458,0.12846662,0.062101748,0.009533144,-0.026569987,0.08617215,0.060518693,0.08757501,0.11583877,0.25697857,0.07126073,0.0781961,0.011835569,0.1012363,0.062210727,0.08071252,0.10866718,0.049132373,0.034768395,0.04157361,0.0454325,0.23434481,0.16089332
nurture,0.06207616,0.07021006,0.15910745,0.1630787,0.12401173,0.12076332,0.06797829,0.12469767,0.09882391,0.08622151,0.08952558,0.05535377,0.09526139,0.09909689,0.071841665,0.10638361,0.11316842,-0.020790333,0.021285346,0.10054281,0.07072086,0.12596996,0.14266576,0.04776737,0.14784995,0.13012862,0.04993811,0.13502294,0.06750831,0.060269363,0.043350503,0.053331222,0.06821727,0.037755206,0.10894182,-0.01745053,0.048268937,-0.028578322,0.092835836,0.023123778,0.09725859,0.094494365,0.0895404,0.036756333,0.080862254,0.09415772,0.07457979,0.03117334,0.033481628,0.14274846,0.1635589,0.046441756,0.104093485,0.075184464,0.078355834,0.044178784,0.1385086,0.20798634,0.10683847,0.12067815,0.04527492,0.040647488,0.09314209,0.06743392,0.02400556,0.023402879,0.11026176,0.078481786,0.14314748,0.078824855,0.2455727,0.1046867,0.055122633,0.041155934,0.090289325,0.09357785,0.0738713,0.16828041,0.04716654,0.040438764,0.10181309,0.054804448,0.23144747,0.1755223
nurtures,0.04287149,0.060469236,0.079274,0.12816514,0.09236822,0.102324516,0.030702854,0.11835041,0.058052845,0.07397659,0.11523195,0.059802305,0.06252292,0.06269721,0.054890957,0.05243024,0.13065381,-0.022536634,-0.017944885,0.0616589,0.064242624,0.106051,0.066635765,0.029117638,0.112176575,0.16581312,0.13314071,0.109373696,0.06833907,0.0751574,0.0623107,0.070120856,0.14094113,0.08359304,0.1268029,-0.026914656,0.011827738,-0.040072117,0.05441059,0.022914873,0.12828568,0.08761682,0.08482567,0.08798549,0.009540822,0.09532547,0.053267155,0.032455683,0.08209641,0.03503186,0.1849084,0.02263949,0.14163005,0.11710786,0.048668597,0.08326401,0.11684159,0.062472865,0.09685211,0.056400396,0.035028983,0.007055863,0.04186487,0.0860764,0.037004147,-0.028823942,0.05587881,0.07703908,0.0935798,0.07796377,0.18792357,0.09586879,0.07780714,0.048897628,0.07851042,0.041500926,0.10664333,0.14294066,0.032328133,-0.013313151,0.054735743,0.028145367,0.13804415,0.11137994
nurtured,0.14474738,0.11999726,0.2513588,0.19909069,0.18477161,0.17014,0.11759884,0.15355527,0.21520974,0.17584418,0.13301334,0.09359707,0.18568803,0.25305817,0.13336714,0.137349,0.124005154,0.05965577,-0.013371212,0.07679159,0.100169055,0.1827658,0.22765893,0.03418338,0.12218669,0.21922477,0.11452386,0.16870745,0.14268139,0.07080147,0.04342603,0.060480528,0.10043401,-0.012008371,0.1235228,0.021481527,0.086878575,0.0055988254,0.13111193,0.046997916,0.068871655,0.05466935,0.02065448,0.0882005,0.08312507,0.21825115,0.064667255,0.033764854,-0.015633475,0.08286936,0.23033005,0.028190032,0.027655993,0.056738377,0.019696278,0.10577332,0.08915973,0.07469477,0.07412648,0.09287349,0.030714313,0.02725224,0.07708775,0.039092064,0.03892188,-0.022219399,0.114584245,0.09538497,0.08446702,0.07339993,0.16457263,0.09194186,0.053063,0.03239731,0.036807764,0.036875397,0.05725598,0.16248205,0.04837259,0.01070772,0.07134831,0.013138802,0.17359343,0.08404032
help,0.08403107,0.06411776,0.07620869,0.10707806,0.08516079,0.08996162,0.06991898,0.13289121,0.074562624,0.0976495,0.080494605,0.05480288,0.1017776,0.08849101,0.029359393,0.13408567,0.06215565,-0.0038005058,0.030447192,0.15429047,0.13529101,0.049839113,0.081194475,0.14889865,0.17318395,0.08955659,0.059095893,-0.0038519064,0.08109378,-0.013306897,0.023255713,-0.027162297,0.04338084,0.1097318,0.089330524,0.044715974,0.06737911,0.0048892144,0.027611215,0.018096192,0.019798364,0.028131241,0.03941751,0.11534319,0.026668753,0.18380418,0.21668926,-0.051714256,0.044366434,0.17585163,0.115766615,0.17149271,-0.007328976,0.04211569,0.038548715,0.047289375,0.07182252,0.009031742,0.04299816,0.06856434,0.017067216,0.033071417,0.09995236,0.0432132,0.034781538,0.02777869,0.09336986,0.05866809,0.09818166,0.0025484602,0.05621317,0.06067855,0.07031199,0.08045458,0.071098045,0.020406205,0.086706646,0.074939676,0.06443807,0.07922702,0.08202036,0.09068,0.10932308,0.092770025
helps,0.01659826,0.0030017393,0.0071065603,0.029482527,0.023445394,0.010294048,0.038308717,0.09359631,-0.0026514695,0.016137881,0.009411733,0.015124151,0.02263193,0.023608584,-0.03878452,0.0024259198,0.06536307,-0.04701503,0.011255697,0.09277767,0.020642802,-0.021400481,0.012129327,0.08826781,0.15202919,0.042605538,0.06001768,-0.039929044,-0.0056891814,-0.017055513,-0.038173597,0.014016743,-0.0030979502,0.041971162,0.047213513,-0.059883095,0.030054873,-0.031248664,-0.019209657,0.032196246,-0.0053360374,0.02674691,0.050820936,0.0064535714,0.005237024,0.1165078,0.13856965,-0.00037537434,0.07946293,0.02449347,0.06310986,0.079343006,0.07596599,-0.027893618,0.07541645,0.05779966,0.058094423,-0.032355856,0.042939425,0.031951986,0.03005471,0.031267226,0.08692221,0.033225626,0.030216543,-0.011397381,-0.01772223,0.026031718,0.08369167,-0.04252605,0.08381533,0.022490304,0.026348382,0.020983856,0.03714876,0.019696297,0.04769008,0.06670018,-0.009118617,0.030202497,0.025877124,0.014290063,0.037256647,0.066815756
helping,0.08088119,0.05904763,0.082466096,0.05551315,0.07780398,0.06732401,0.08070638,0.104485214,0.06576008,0.04644231,0.06108839,0.062205058,0.08875083,0.106940284,-0.019629173,0.119036496,0.08162099,-0.0029581285,0.0062602228,0.18031988,0.06604663,0.09131545,0.12353971,0.07755788,0.2040892,0.15733422,0.12543356,0.0768066,0.06778649,0.0031119797,-0.047648754,-0.0027156407,-0.009633989,0.020797372,0.031868465,-0.011447045,0.061781384,0.002398473,0.004597344,0.021048816,-0.010360275,0.081189565,0.03217679,0.023635454,0.056424536,0.17061694,0.19407175,-0.040274903,0.025985591,0.1493171,0.12721008,0.13707201,0.01832623,0.023571385,-0.014273617,-0.046281185,0.035506573,-0.08003394,0.00377763,-0.018765997,0.0129610505,-0.028914005,0.0672386,0.01296252,-0.0009924229,-0.027457314,0.020509074,-0.023146965,0.010936276,-0.021510309,0.03952352,0.020261394,0.073437944,0.062220484,0.04341806,0.018662479,0.079190075,0.023445336,0.024354434,0.031179208,0.049776345,0.0769924,0.07026534,0.109635286
helped,0.052403152,0.04295609,0.087999746,0.043338276,0.062236283,0.05007696,0.065941475,0.0950234,0.07509591,0.07060686,0.0545491,0.050441533,0.07365662,0.12456132,0.025212228,0.027181754,0.07591271,0.032600272,0.03813261,0.13584201,0.04652392,0.035392284,0.10467386,0.060832016,0.078142405,0.13240267,0.07273825,0.008908145,0.071477644,-0.009847526,-0.07199499,0.026042333,-0.01850727,0.053853676,-0.011748381,0.023658609,0.0862564,-0.013316635,-0.028344693,0.033080377,-0.05890338,-0.015198514,0.002602836,-0.027561525,0.07822333,0.21181193,0.09182106,-0.043536525,-0.00509914,0.013149127,0.10634824,0.05377876,-0.00985819,-0.0060530365,0.017271494,-0.023401547,0.024916442,-0.043693863,0.020406988,-0.0037209552,0.023138858,0.0002784114,0.03893029,0.013043855,0.0036667027,-0.0043413993,0.025326798,0.008730851,0.025559,-0.018713871,0.005093734,0.0031144628,0.05243794,0.049858976,0.030877724,0.027404064,0.04794119,0.036341976,0.018503606,0.019965248,0.0064178794,0.035800293,0.009691499,0.0019497831
concern,0.016960077,0.017954646,0.03958711,0.036419485,0.0674423,0.038376555,0.06942036,0.0458023,0.05618048,0.04592484,0.08142193,0.07739087,0.074900985,0.09450524,0.12237281,0.17402284,0.064838074,0.07512123,0.02814864,0.05314422,0.10352152,0.06440713,0.0516884,0.05893902,0.06856747,0.20544797,0.10619642,0.00016056084,0.050048213,0.070666365,0.016116068,0.027902307,0.06644636,0.024279028,0.024070486,0.31940225,0.07865102,0.14674646,0.12674393,0.14983737,0.032689124,0.094371654,0.0011922293,-0.0029621169,0.032677796,0.08863995,0.05182872,0.010935986,-0.007024103,0.044813793,-0.017848395,0.11339988,-0.0039347485,0.003829703,-0.013026708,0.038855024,0.015456235,-0.049351536,0.023541054,0.07636551,0.06687286,0.03163136,0.024660973,0.07110282,0.021622432,0.029124448,0.08718824,0.012991971,0.0012922189,0.02863514,0.12282997,0.039708752,0.13875823,0.046036653,0.06895209,0.066437095,0.0688923,-0.0045675673,0.0896266,0.019991698,0.061167467,0.024057107,0.053985745,0.06775217
concerns,0.01607328,-0.005013309,0.024327537,0.02170415,0.04057749,0.01889554,0.02599419,0.0064787758,0.02318373,0.038091403,0.03447024,0.036981672,0.067547254,0.064607024,0.06865547,0.07896558,-0.03357595,0.054364223,0.052502245,0.076009475,0.08158261,0.003311611,-0.05217013,-0.03712355,-0.0044189086,0.07169099,0.040945087,-0.08479315,0.008376181,0.0016399734,0.02600942,0.034912556,-0.017443206,0.0050291894,-0.013603485,0.31727624,0.090954766,0.089401245,0.038787313,0.08496792,-0.0038697303,0.026746403,-0.032763284,-0.04733149,0.025593905,0.13610564,0.082132764,-0.014551979,0.0074439254,-0.02962611,0.009569634,0.10163967,-0.029393902,0.021113921,0.023299789,-0.044380337,0.02193798,-0.059691876,0.014665552,0.047576707,0.07473145,0.025957331,0.022122478,0.04616982,0.04263239,0.0073630204,0.030984778,0.012031534,0.0019396271,0.002247814,0.14213066,0.008554693,0.09938873,0.062340874,0.04708855,0.039354105,0.06306531,0.012358889,0.060102534,0.015810343,0.07521555,0.02301571,0.030705234,0.0119908545
concerned,0.02754839,-0.005522739,0.038078394,0.022371069,0.03460736,0.019997302,0.043126952,4.7314996e-05,0.031291652,0.0066224374,0.024408244,0.05284442,0.010026934,0.03308642,0.07713871,0.07948924,0.13883403,0.021347854,0.0342478,0.0994234,0.1050998,0.08418357,0.14318381,-0.042151734,0.04655636,0.16055131,0.17952815,0.08761991,0.033944763,0.11167998,0.0066100913,0.03909329,0.111923166,0.009927193,0.031333566,0.12080372,-0.006445587,0.032813646,-0.0021367257,0.037682366,-0.019179856,0.064253226,0.01874331,0.025683267,0.017127642,0.12661,0.100960635,0.035743557,-0.035512798,0.13657066,-0.0069472324,0.13004123,0.017409824,0.0057663764,0.013789853,0.07928682,0.05634402,-0.03109451,0.05091941,0.0068877405,0.087319516,0.063763246,0.02697938,0.087150514,0.023409104,0.008411438,0.1538772,0.08522978,-0.018353267,-0.025063852,0.1241932,0.041458316,0.11811997,0.043218512,0.020958383,0.0375118,0.12229199,0.028205708,0.0059927586,0.048955087,0.081429124,0.04956969,0.06448274,0.062553875
concerning,0.03653826,0.022593297,0.044610143,0.04880901,0.024812516,0.023248225,0.030918999,0.05244718,0.03100494,0.038150348,0.0404966,0.028986184,0.02994813,0.0782062,0.103757374,-0.0063089067,0.037928596,0.00709755,0.089758635,0.024722435,0.062364437,-0.00907958,-0.008094285,0.02645489,0.006646514,0.0555189,0.040562645,-0.0024203456,0.08879024,0.017454172,-0.03373014,0.01936286,0.13765074,0.048690002,0.023846654,0.069694765,-0.0037606664,0.051019117,0.0006312548,-0.00807853,-0.06404383,0.020846793,0.08453357,-0.016513845,0.032697685,0.117714345,0.06673884,0.0893079,0.052985605,-0.05705384,0.019120365,0.10751627,0.02906056,0.038203105,0.06291756,0.005887202,0.09934691,0.030685835,-0.012624886,0.023924379,0.057201724,0.014087187,0.0471583,-0.010313829,0.075870454,-0.019199235,0.08824066,0.009743307,0.018331217,0.017247137,0.23697895,0.050103493,0.024749765,-0.0032443805,-0.014581668,-0.03612224,0.0036003056,-0.044611506,0.028436065,-0.019707879,0.032653615,-0.012100205,-0.016096815,0.01418444
empathy,0.11180029,0.085568525,0.1402848,0.17255203,0.100880384,0.12700781,0.11731123,0.0861504,0.11586723,0.14005241,0.12886727,0.07865489,0.1721523,0.12031825,0.20163515,0.10572097,0.1555534,0.13109869,0.059062358,0.2732415,0.1040972,0.20324922,0.16307025,0.0910425,0.054079678,0.069870025,-0.010990052,0.098959684,0.11492317,0.115743235,0.056626983,0.066896275,0.15578999,0.070538625,0.18753347,0.10017737,0.00464047,0.067732215,0.16340803,0.043244433,-0.01155493,0.084545694,0.0732366,0.16262907,0.19454423,0.050030775,0.22608782,0.019550849,-0.0044877753,0.18569615,0.045367118,0.20847034,0.011714541,0.13261421,-0.009014508,0.075335845,0.19561695,0.21689707,0.04418415,0.105196066,0.07496011,0.071723916,0.16890745,0.066910766,0.093714274,0.116787076,0.10556549,0.10600579,0.15566543,0.0973964,0.18305637,0.033459544,0.04638325,0.03226172,0.09880247,0.06759,0.040251296,0.015033616,0.11473012,0.021881469,0.024411209,0.06534136,0.13327488,0.10353073
empathetic,0.110925086,0.086175084,0.112338305,0.1523534,0.055465933,0.08718527,0.06306874,0.042591017,0.08843203,0.12648873,0.0877784,0.04107759,0.104150765,0.04549434,0.22470704,0.16363257,0.17563497,0.15624681,0.050309867,0.26130828,0.085582614,0.21845646,0.27152458,0.13213263,0.076613046,0.10240414,0.04384027,0.14538741,0.099891305,0.10448366,0.14687997,0.096371695,0.16086116,0.06233105,0.20938754,0.005701135,-0.04580606,0.10746427,0.20474763,0.058134336,0.03840392,0.118582815,0.024815729,0.13811247,0.14372134,0.037876476,0.19205268,-0.017683549,0.024263324,0.22341368,0.018676708,0.23707488,0.016769443,0.18619406,-0.0050417325,0.045093738,0.16788614,0.21277043,0.042224247,0.04201383,0.015178193,0.04604443,0.15518641,0.04154471,0.054942373,0.1371086,0.096975304,0.1325499,0.11987902,0.05798223,0.21364208,0.0024243188,0.013937434,-0.0025158555,0.107363604,0.09175568,0.050573125,0.025838602,0.062338106,0.021772332,0.048780803,0.06361448,0.20699434,0.17511517
empathize,0.17177194,0.17387052,0.16506623,0.19555971,0.16382076,0.16355917,0.12666982,0.093100436,0.1290934,0.14522141,0.1375141,0.10709156,0.1515579,0.095702656,0.1722559,0.11217029,0.20774946,0.12988865,0.089141235,0.32858765,0.07406602,0.15588075,0.16861196,0.038305398,0.0791645,0.09419959,0.023856902,0.1194467,0.14778739,0.2026866,0.0821098,0.048447605,0.15521838,0.0472762,0.14063296,0.04347047,0.039265174,0.06776975,0.12704693,0.008103157,0.06700919,0.09989013,0.025719458,0.14565177,0.12227508,0.13889863,0.23560785,0.06574177,-0.0072600096,0.19209783,0.09782504,0.19084968,0.040901322,0.12638313,0.026214197,0.10527991,0.06009327,0.12348339,-0.03153264,0.072189964,0.032980617,0.011995375,0.08788441,-0.0046955,0.038499758,0.015609975,0.1590202,0.049520656,0.09602729,0.019201163,0.08399734,-0.0546626,-0.0027531781,0.016846873,0.010453812,-0.021998273,-0.02789508,-0.0023100886,0.014428047,0.022927446,-0.006279108,0.004215325,0.07468526,0.05764439
sympathy,0.16456014,0.14592296,0.14430512,0.16402844,0.15281926,0.14482594,0.15453732,0.15643072,0.1670889,0.15084787,0.18222831,0.1832509,0.17942297,0.16195245,0.16995776,0.1686845,0.1109315,0.15291211,0.08525372,0.25326002,0.08990725,0.22484705,0.12667125,0.063156344,0.043122683,0.17927904,0.07016615,0.12574199,0.1824931,0.16138065,0.022663299,0.027399683,0.14535236,0.04703439,0.12073168,0.29801348,0.10813932,0.13515832,0.14212415,0.05549589,0.029401056,0.10778299,0.0685945,0.16211773,0.099787384,0.08791819,0.13141556,0.045367982,-0.023675552,0.20932114,0.036869295,0.18315756,0.0046654944,0.05542602,-0.029082589,0.14595577,0.06340713,0.09364279,0.008791684,0.04877452,0.030370377,-0.0014442988,0.08772482,0.031868104,0.059091233,0.04361822,0.088664494,0.0564298,0.08177774,0.11332715,0.07324429,0.036356743,0.056064986,-0.0009205251,0.038771965,-0.0054017743,0.03392821,-0.019465888,0.08164725,0.038575154,-0.0037852498,0.061688397,0.054659322,0.03577223
sympathize,0.19451673,0.18022422,0.16650201,0.16956992,0.16662286,0.1432182,0.1504413,0.114189886,0.16097568,0.12929139,0.13613287,0.13310842,0.12502079,0.10434624,0.15009822,0.17284714,0.20873661,0.12051037,0.07686826,0.3338782,0.10089468,0.18201914,0.155831,0.014650872,0.08606961,0.17291042,0.09662001,0.16465783,0.13116357,0.2228295,0.07179142,0.07801361,0.14529736,0.00039355864,0.1330232,0.14767966,0.07201806,0.07921995,0.123519406,-0.0318575,0.046156798,0.18708214,0.090842694,0.1674262,0.07855302,0.14723295,0.18985066,0.14151023,0.0042974427,0.23604432,0.085494526,0.19563687,0.040498417,0.07910316,0.035468955,0.12490243,0.029473385,0.10857865,0.013659311,0.038737018,0.06673487,0.027386736,0.081464946,0.0068030786,0.06315931,-0.010689293,0.17096232,0.09930123,0.08067571,0.07078009,0.068935834,-0.005838791,0.024087654,0.06011038,-0.047190722,-0.039426852,0.0009412649,0.039298806,-0.011793904,0.033801895,0.0071082595,0.029821968,0.04245323,0.020546619
sympathetic,0.117005855,0.092080995,0.11998505,0.1073089,0.08239801,0.07454602,0.08139818,0.056861263,0.10606914,0.08783838,0.081674926,0.10929171,0.064391695,0.08220336,0.10321161,0.23981445,0.18505542,0.117345594,0.0519586,0.26365843,0.09254822,0.21879567,0.25779933,0.07279776,0.05616114,0.24035421,0.15781215,0.16888422,0.18276845,0.17967416,0.06359252,0.108974956,0.118758425,0.054746617,0.16949907,0.1978347,0.045154072,0.07562328,0.1648299,-0.009705452,0.05698129,0.17080127,0.034253392,0.1730113,0.13781005,0.14354673,0.18137261,0.05578482,-0.040037606,0.2335308,0.04892762,0.19363526,0.0072066593,0.09398471,-0.017930562,0.13388105,0.14902471,0.17758928,0.064016275,0.059641365,0.01739409,0.04962753,0.09939452,-0.0021112375,0.079085566,0.055258695,0.11220295,0.1454991,0.11991822,0.13126516,0.14768516,0.046120718,0.029935163,0.048676312,0.009101141,-0.008267106,0.03260178,0.04929079,0.020924198,0.024416722,0.06167828,0.081972495,0.07060792,0.027069172
compassion,0.17100403,0.14212611,0.1627141,0.23370786,0.13501774,0.16615964,0.15218072,0.14697054,0.12652662,0.1960326,0.17968011,0.08939972,0.19334227,0.13108416,0.13438922,0.10317144,0.0894114,0.11551911,0.04395111,0.2371344,0.16698936,0.29919404,0.12653723,0.10955682,0.04346914,0.096085474,-0.01575176,0.12331871,0.10645693,0.10040227,0.067115836,0.07203394,0.14971659,0.059517197,0.18102558,0.11933905,-0.010559872,0.101923965,0.13691226,0.032215808,0.04849216,0.133633,0.09252823,0.19523467,0.11772935,0.07169499,0.20559426,0.050401203,0.024263352,0.16461731,0.050664853,0.25439247,0.062820435,0.18355729,0.054402884,0.11242638,0.2562986,0.13294083,0.06358574,0.11557373,0.022643184,0.06946069,0.20784588,0.048952777,0.110785134,0.08532408,0.12226442,0.15190983,0.07736078,0.0904005,0.23128255,0.07577683,0.07268884,0.06401066,0.15796581,0.05894292,0.07488462,0.087317616,0.1435274,-0.009257151,0.06759998,0.070418,0.2584546,0.17799136
compassionate,0.1613068,0.14679785,0.16096951,0.20816064,0.14082989,0.13967991,0.13613231,0.10785073,0.122317545,0.18917392,0.163516,0.100866444,0.1753862,0.1091418,0.10745323,0.14576282,0.08922477,0.13189338,0.05526479,0.1912452,0.14110844,0.33035466,0.24255967,0.16677152,0.03415437,0.21356258,0.051801946,0.2031736,0.0983027,0.1377489,0.08313522,0.08557586,0.103269,0.08660145,0.14682451,0.11772489,-0.0446706,0.08526485,0.11280129,0.052828882,0.068461,0.10923476,0.05348915,0.16103043,0.092369884,0.049338765,0.22894476,0.038125586,0.042665824,0.17410229,0.06462199,0.26136032,0.04990594,0.20235628,0.01400593,0.14594077,0.2246871,0.10468493,0.054831285,0.078071214,0.0371273,0.0821818,0.17613275,0.06667362,0.08832761,0.11934062,0.05653454,0.14520521,0.05481409,0.0855048,0.22864348,0.035650816,0.026603855,0.0291945,0.11511756,0.06093144,0.0189449,0.050303657,0.109680444,-0.021659253,0.055340454,0.05485054,0.2926596,0.19613504
uncaring,0.10805092,0.075721055,0.17366783,0.18216023,0.13142991,0.11836477,0.10238943,0.10799894,0.17246969,0.16173646,0.1276807,0.12092973,0.10589356,0.090389065,0.09485943,0.14348483,0.116341144,0.054479122,-0.0062915226,0.1715817,0.12174061,0.19381435,0.17155077,0.07562798,0.023982821,0.06175278,0.039603278,0.10932354,0.12444448,0.14946413,0.14189069,0.13663262,0.12122801,0.052902352,0.2940253,0.1396603,0.035050064,0.094136834,0.18854707,0.05855107,0.14704922,0.21128714,0.21802707,0.21151373,0.16839416,0.24044004,0.23636776,0.14861292,0.05471801,0.2162614,-0.00076790876,0.2682148,0.16835834,0.13304316,0.06896388,0.28121766,0.21563892,0.17085539,0.09058293,0.16606219,0.06269574,0.15332603,0.19152428,0.04745708,0.1483368,0.07940595,0.10505418,0.16334134,0.10273193,0.102185965,0.20488013,0.050444387,0.031726174,0.07781391,0.15462326,0.09948303,0.016089939,0.056091905,0.111970395,0.11263439,0.17092311,0.08168141,0.22235194,0.23237683
apathetic,0.029523814,0.014724934,0.1050521,0.08517207,0.08111097,0.061025977,0.07318337,0.038591664,0.09951802,0.08007717,0.012014936,0.04960628,0.063257925,-0.0016788772,0.07240427,0.071144626,0.15854827,-0.018316431,-0.009614258,0.15773353,0.045927085,0.17541252,0.07901198,-0.03980023,-0.0029135742,0.12335738,0.10598377,0.18531409,0.15970932,0.19083491,0.07069504,0.11972235,0.07560149,0.082971595,0.19862515,0.17786749,0.002630008,0.14964198,0.11520783,-0.008758822,0.0740259,0.1608371,0.17962006,0.1355344,0.22149944,0.20641345,0.18745446,0.11864029,0.08274916,0.24884757,0.04741874,0.1898246,0.17957173,0.04698387,0.039301284,0.19175017,0.102235176,0.14194724,0.03809003,0.0638341,0.0447124,0.07641039,0.0898551,0.021288238,0.05226547,0.005619375,0.095151454,0.051337663,0.09325511,0.05791774,0.14918713,0.08278101,0.08914624,0.03960439,0.082000695,0.042611245,0.062033195,0.012076641,0.07938787,0.10747631,0.10351554,0.08760533,0.09034704,0.15100643
apathy,0.02127787,-0.0036669483,0.05542831,0.03114394,0.05034236,0.026623262,0.05857883,0.01739904,0.09660871,0.046579327,0.033410158,0.07300456,0.047067333,0.015991334,0.088370174,0.03705839,0.10561287,0.04506124,-0.010552921,0.16587736,0.028150795,0.10698381,0.010885778,-0.054833416,-0.034214314,0.08326952,0.045131035,0.0666837,0.11337945,0.17075592,0.035851736,0.06984311,0.04917892,0.054587923,0.13013066,0.244141,0.018656954,0.1353552,0.118025094,-0.036194436,0.07732602,0.14783436,0.13523862,0.13844523,0.20403886,0.15893833,0.14509118,0.06809016,0.0655536,0.1464429,0.062185667,0.1692521,0.14080986,0.03855239,0.023591062,0.09333537,0.06581802,0.062223293,0.04459343,0.07630072,0.03149085,0.045267645,0.07732457,0.013827916,0.011415716,0.029645931,0.09513908,0.04739196,0.061732877,0.00922883,0.17344633,0.11899385,0.06662188,0.046192374,0.07571607,0.03631863,0.014563045,0.0533258,0.099380665,0.085722305,0.057358306,0.1132632,0.061089408,0.046447873
unconcerned,0.020564137,0.03110517,0.07586982,0.043599445,0.09212561,0.0584149,0.06911843,0.013111149,0.05621895,0.023505101,0.03187225,0.10260398,0.022399426,0.024461558,0.104050964,0.07571688,0.12319224,0.040590428,0.11811065,0.16786572,0.049528323,0.025584074,0.14852896,0.007262578,0.023976447,0.08326082,0.06869251,0.107189976,0.018114202,0.14428881,0.113317296,0.03608033,0.18621655,0.05615014,0.11993789,0.13232403,0.10094125,0.08988992,0.07759059,0.03194636,0.04630103,0.08256086,0.007162811,0.060462184,0.06463333,0.20023371,0.07650413,0.010502544,-0.08000464,0.11573309,0.060667742,0.05810142,-0.029147414,0.004562114,-0.070837826,0.15335014,0.032626122,0.08877756,0.09968518,0.048765432,0.1119425,0.08750182,0.043144286,0.079983965,0.061250027,0.022187648,0.077076264,0.0893089,0.057183407,0.09420121,0.16817139,-0.011081078,0.0408579,0.02671177,0.041704867,0.056746773,0.0692233,-0.013833991,0.026220778,0.06743629,0.10755224,0.050701577,0.044539,0.08967487
unconcerning,NA,NA,NA,NA,NA,NA,NA,NA,NA,NA,NA,NA,NA,NA,NA,NA,NA,NA,NA,NA,NA,NA,NA,NA,NA,NA,NA,NA,NA,NA,NA,NA,NA,NA,NA,NA,NA,NA,NA,NA,NA,NA,NA,NA,NA,NA,NA,NA,NA,NA,NA,NA,NA,NA,NA,NA,NA,NA,NA,NA,NA,NA,NA,NA,NA,NA,NA,NA,NA,NA,NA,NA,NA,NA,NA,NA,NA,NA,NA,NA,NA,NA,NA,NA
indifference,0.05700187,0.09649128,0.10227218,0.10918773,0.072885774,0.07779912,0.06796939,0.05977323,0.12592824,0.13174972,0.10444447,0.084676705,0.118905105,0.0953673,0.14645368,0.14794628,0.08107829,0.08920432,0.09665144,0.1783667,0.066016115,0.11418971,0.06107329,0.061020132,0.03945478,0.041899946,-0.0043945448,0.10894746,0.15933989,0.16922292,0.06357447,0.12244197,0.12125478,0.08449264,0.17151798,0.2100323,0.011485779,0.1177575,0.19434649,0.015386266,0.14421499,0.16241674,0.13970119,0.18791081,0.15005107,0.1183348,0.07289863,0.07048451,0.046918288,0.056087416,0.07173166,0.13943082,0.098623954,0.072651125,0.051062927,0.17708161,0.13543823,0.12862201,0.06951604,0.08990568,0.008178399,0.078459226,0.12366689,0.041478023,0.020229781,0.012812503,0.104415946,0.05168944,0.04997091,0.045818824,0.2912712,0.09036378,0.047332432,0.029767018,0.11480925,0.0738386,0.0027418842,-0.007675486,0.13501237,0.07832758,0.05225997,0.11684229,0.12466626,0.15170372
indifferent,0.025930801,0.04757165,0.10277602,0.08357017,0.06715108,0.061157674,0.052185357,0.01633892,0.08633197,0.045434907,-0.0025459614,0.031037938,0.016913908,-0.013656525,0.09486248,0.13863792,0.17161119,0.0118851205,0.03872885,0.15310502,0.043911047,0.09074922,0.1272439,0.0067039435,0.05653602,0.11478176,0.06459478,0.16743426,0.14639744,0.21911061,0.027612543,0.04861364,0.13128825,0.090551436,0.19895436,0.15062107,0.02041303,0.11720396,0.12279236,-0.011034742,0.113358304,0.1824543,0.162218,0.19200802,0.15004145,0.1813343,0.13222942,0.09277261,0.012970535,0.16403483,0.047993917,0.12790327,0.12995048,0.037046567,0.04557098,0.25842386,0.124033086,0.1112903,0.037200227,0.07478451,0.07424968,0.07352322,0.094130814,0.04598528,0.058985017,-0.030286144,0.10439756,0.04471869,0.0955472,0.10528223,0.17471653,0.05306534,0.014973454,0.032554403,0.036099315,0.012690876,-0.0074091866,-0.005348744,0.043321997,0.07395035,0.12456526,0.057323523,0.11468876,0.1356716
detached,0.05312831,0.074392475,0.113631845,0.16578315,0.07434664,0.073961064,0.065502994,0.06842091,0.037939336,0.09381399,0.025816686,0.02182365,0.09966372,0.03157777,0.03500618,0.023899835,0.061413027,0.020044085,0.0068792747,0.024435202,0.12955353,0.085515216,0.08472021,0.039821595,-0.057436366,0.0038872845,0.055781875,0.10474619,0.08438043,0.14387012,0.09427466,0.17751154,0.1359712,0.13499641,0.16689804,0.097150065,-0.016986517,0.01889179,-0.008442924,-0.0020502203,0.10383539,0.26927474,-0.038979303,0.10357211,0.076417044,0.12314816,0.18564218,0.021303657,-0.06424333,0.14641666,0.046278697,0.14497215,-0.005657838,0.14815122,0.006450364,0.15798587,0.09522763,0.1358402,0.11244425,0.06601599,0.18058822,0.111138135,0.12260851,0.027491879,0.14670303,0.039688144,0.09589306,0.098459765,0.05078521,0.06068241,0.14667907,0.053587172,0.06347351,0.1061705,0.13074487,0.060499754,-0.016685406,0.120413534,0.07057905,0.12786981,0.08181116,0.086816855,0.09738473,0.007696357
detachment,0.15677993,0.12438625,0.1443014,0.17279765,0.12436297,0.10723693,0.07841721,0.07545628,0.17175458,0.17733869,0.11278973,0.08809748,0.1422789,0.11777144,0.19906333,0.058237802,0.073012866,0.10597454,0.050428018,0.09650664,0.122810304,0.1825029,0.024880823,0.06766344,-0.06786007,-0.025261365,0.083979495,0.08101486,0.11324292,0.13443339,0.11757453,0.14634973,0.13482408,0.085967764,0.21183881,0.043948162,-0.018600835,0.047009524,0.111186415,-0.026883673,0.07736776,0.091256976,0.0036690508,0.1066299,0.011269838,-0.0047032307,0.0247694,0.028921241,-0.00022186284,0.066878915,0.20062532,0.096871614,0.03552256,0.19292451,0.034202516,0.06992864,0.107924804,0.039261054,0.035585437,-0.02372035,-0.025060313,0.03192593,0.13288985,0.011699465,0.062210426,0.02385969,0.062393114,-0.0011275886,0.018382156,0.07356548,0.22771485,0.15663165,0.10428932,0.101582825,0.062749594,0.091857746,0.08368664,0.09073383,0.10378528,0.10105903,0.13456443,0.114920564,0.0468929,-0.0053910394
neglectful,0.20209174,0.13176803,0.22754699,0.28098685,0.21706745,0.24076137,0.1559128,0.18800813,0.18004838,0.24808598,0.20093805,0.1393722,0.21862356,0.11313997,0.06779251,0.10666827,-0.0078053162,0.004003952,-0.051307954,-0.03704891,0.17286736,0.07205919,0.17616953,0.08690798,0.057214543,0.011391657,-0.007994886,0.080209754,0.11504901,0.07147888,0.13659777,0.15183148,0.110417895,0.058984652,0.28199518,0.050726134,-0.06441592,0.008643638,0.066208646,-0.03678363,0.062510945,0.23021053,0.11700056,0.2109733,0.1768335,0.20059903,0.24524203,0.059351347,0.07640673,0.17581719,-0.007762132,0.23771109,0.03666427,0.15154973,0.022912053,0.20385441,0.20551072,0.13507336,0.063504666,0.10159034,0.08598681,0.058110118,0.30247313,0.05855721,0.09699137,0.019099439,0.11390327,0.16249897,0.113601096,0.0626384,0.14043696,0.09084481,0.08601757,0.09705546,0.042458285,0.09656339,0.060660984,0.0929536,0.035302263,0.12600872,0.1209426,0.020162644,0.11839608,0.09666607
neglect,0.13715392,0.104125254,0.15882789,0.26964277,0.16180126,0.20446551,0.06866164,0.113480404,0.15604052,0.22595853,0.17933436,0.11264324,0.22363894,0.15140048,0.08699876,0.12967579,0.05358328,-0.043730702,-0.10320508,-0.042265378,0.18253662,0.05120995,0.08453437,0.064643234,0.027630689,0.04664217,0.028894912,0.07609227,0.09866105,0.04770808,0.07005568,0.13504185,0.048109263,0.11279783,0.21631403,0.09391653,-0.09233155,0.02610852,0.040162157,-0.042601652,0.0721664,0.18417567,0.08969981,0.19983047,0.13888913,0.16842796,0.25909323,0.018641403,0.009119471,0.18307444,0.03716353,0.27935717,0.034485284,0.1777319,-0.021920232,0.22612487,0.25541636,0.13130656,0.13300939,0.18529855,0.05120249,0.081921145,0.23976922,0.034863293,0.03722511,-0.015273634,0.19448118,0.10380848,0.053705566,0.09771805,0.18343805,0.12329307,0.09350468,0.019120509,0.032248303,0.11907605,0.07013818,0.12907448,0.034485202,0.11147352,0.086238235,0.046252277,0.045518134,0.029787024
neglected,0.12613067,0.10765851,0.17019084,0.19093268,0.13787976,0.16440141,0.10743684,0.15250033,0.14403166,0.17614177,0.17179675,0.11072724,0.1746347,0.15332283,0.12845089,0.11357931,0.023681657,0.017348232,-0.058355246,-0.012784781,0.14047894,0.028253328,0.090004705,0.09982661,0.061644774,0.07542454,0.010208366,0.0461795,0.17770833,0.045892444,0.034850065,0.03911722,0.12111755,0.077000305,0.2484743,0.020045439,-0.024430418,-0.036489986,0.044283442,-0.06182598,0.05627953,0.1064812,0.104227625,0.19131544,0.19211085,0.3064759,0.3261364,0.0041886806,-0.032801718,0.17835987,0.049662147,0.27066433,0.088239506,0.13962463,0.027051313,0.27986324,0.2017312,0.11376188,0.08970954,0.22147982,0.086534426,0.12598167,0.231111,0.036967035,0.051334042,-0.057539362,0.12893853,0.09261557,0.07790308,0.11461832,0.14462532,0.13715109,0.06673859,0.040036302,-0.00059656735,0.050327413,0.074992135,0.0883618,-0.013884368,0.07017092,0.13291487,0.05800918,0.02258898,0.01951003
neglecting,0.13096598,0.1665823,0.13949537,0.20961967,0.14349177,0.18191846,0.060071852,0.1254429,0.08535021,0.13593978,0.17106532,0.08104181,0.16369185,0.108972825,0.07028245,0.15925261,0.05767519,0.038049843,0.011091036,0.078429714,0.1780498,0.045106772,0.076555334,0.09579801,0.063878916,0.065656744,0.038718324,0.14131095,0.13253087,0.07168903,0.071673445,0.059263937,0.068351865,0.049724977,0.16211268,0.07897904,0.06523034,0.053014193,0.061966628,-0.005455608,0.06062346,0.121070765,0.13591495,0.13745841,0.12503959,0.21217756,0.23782112,0.04629449,0.0477209,0.12404653,0.09797341,0.24380867,0.1197098,0.13389616,0.069575876,0.19799659,0.18888052,0.13206032,0.047380593,0.1919639,0.085111536,0.13253292,0.21610215,-0.006509406,0.037327666,-0.05585344,0.15068167,0.0785148,0.083236285,0.13635792,0.12016256,0.12586774,0.042243972,0.028454075,0.003008286,0.0330505,0.024446258,0.053281356,-0.026311245,0.074220754,0.0780197,0.085675485,0.048591774,0.07995091
unsympathetic,0.13175191,0.089789905,0.1664499,0.17599298,0.10234672,0.108308844,0.08932208,0.08562406,0.15023918,0.15084876,0.10416887,0.08787369,0.08867583,0.09070691,0.13039047,0.15539923,0.19715104,0.0896652,-0.011281604,0.22350502,0.086689815,0.14344035,0.21457502,0.037543766,0.053242326,0.13870913,0.08961157,0.14234704,0.1840076,0.16429617,0.12806472,0.12539087,0.20132676,0.045233313,0.25549456,0.10862688,0.008881483,0.109052636,0.18397066,-0.01723144,0.10440858,0.21815628,0.08184098,0.19016632,0.19727588,0.16526864,0.20245741,0.11166748,-0.0037886694,0.1863049,0.021153076,0.23808616,0.07856019,0.13563964,0.0139179,0.21153392,0.118720934,0.12959145,0.016566714,0.07797435,-0.019733388,0.038401533,0.11226657,0.011936311,0.06981222,0.04107868,0.12979533,0.11867497,0.10032207,0.08835114,0.13062239,0.026748186,0.018585328,0.05975748,0.034088198,0.043056227,0.041901495,0.0032323874,0.065187335,0.0561403,0.097427994,0.018156553,0.057513665,0.015893122
unempathetic,NA,NA,NA,NA,NA,NA,NA,NA,NA,NA,NA,NA,NA,NA,NA,NA,NA,NA,NA,NA,NA,NA,NA,NA,NA,NA,NA,NA,NA,NA,NA,NA,NA,NA,NA,NA,NA,NA,NA,NA,NA,NA,NA,NA,NA,NA,NA,NA,NA,NA,NA,NA,NA,NA,NA,NA,NA,NA,NA,NA,NA,NA,NA,NA,NA,NA,NA,NA,NA,NA,NA,NA,NA,NA,NA,NA,NA,NA,NA,NA,NA,NA,NA,NA
uncompassionate,0.13275826,0.08405889,0.11826704,0.16619197,0.071279965,0.076722234,0.090316564,0.07821819,0.11482781,0.14710397,0.098252855,0.04162301,0.13088048,0.06391831,0.12742165,0.14636415,0.101924255,0.08521742,0.034309108,0.12671895,0.17328908,0.26006278,0.11893829,0.060002606,-0.0012114219,0.07689891,-0.0050652716,0.13087112,0.10227464,0.14970608,0.124654226,0.1741104,0.088644564,-0.06336054,0.30672812,0.16349243,-0.005631338,0.14933357,0.2223285,0.04174941,0.18903333,0.28253803,0.1815048,0.27906352,0.26831517,0.17839268,0.24984463,0.31436473,0.11339038,0.20776439,-0.026265057,0.2767267,0.14909412,0.16751912,0.12215666,0.23714082,0.22459497,0.1654942,0.06726193,0.14852302,0.13648221,0.11514851,0.17893401,0.08705378,0.16566052,0.115780964,0.12396003,0.16270706,0.13064423,0.07913682,0.23085013,0.03675177,0.0067071994,-0.002714841,0.08163852,0.043237492,0.011308664,0.061736673,0.05386549,0.031191278,0.04021166,0.0054759737,0.14894876,0.13633057
disregard,0.021387607,-0.021138305,0.06216674,0.053744707,0.04421944,0.02191513,0.056725938,0.014305817,0.04825842,0.0606455,0.065164916,0.08427691,0.03064997,0.062306456,0.042961907,0.08152588,0.13171044,0.058953367,-0.012540024,0.14572525,0.05376697,0.121257335,0.07252749,0.047697112,0.0062120296,0.0637866,0.06040023,0.11130642,0.07131574,0.11456701,0.055465475,0.07790764,0.1301167,0.04710547,0.088041544,0.16155303,-0.041656505,0.08807221,0.07905556,-0.019832794,0.011888496,0.17738101,0.07627323,0.11765139,0.13641839,0.08258485,0.07112451,0.04726152,0.03161024,0.045157857,-0.018767409,0.107868925,0.035825647,0.052426517,0.015399241,0.1018338,0.16163172,0.16770194,0.071279265,0.07147423,0.09502452,0.09412636,0.12919295,0.07359058,0.087511934,0.06490142,0.15056866,0.0800898,0.028723568,0.07905706,0.2616279,0.05089086,0.007925311,-0.018575486,0.059153706,0.05423137,0.008621136,-0.0077089886,0.040302057,0.07009682,0.038960963,0.02034288,0.08789831,0.0653462
disregarded,0.045971256,0.022087332,0.10070781,0.085297614,0.061528392,0.06655483,0.048914585,0.034178726,0.080807395,0.078734316,0.06634092,0.082639016,0.050636314,0.10224348,0.060087003,0.113314986,0.10354943,0.0575747,-0.020907475,0.13915637,0.064617425,0.09145428,0.13248569,0.016393926,0.010985915,0.07966357,0.08752143,0.1106211,0.08359736,0.09521198,0.06548141,0.070623234,0.090029985,0.05291009,0.10056451,0.08761051,0.009703512,0.04430206,0.09320274,-0.0065832585,0.032881215,0.16638866,0.04871502,0.06023065,0.108664,0.1747471,0.124983184,0.030335953,0.0022127568,0.020797482,-0.007477551,0.08989716,0.036965575,0.07713337,-0.0145264715,0.1681138,0.10499161,0.117348105,0.074813984,0.07555085,0.09263423,0.0967227,0.062418368,0.032596834,0.04599496,0.032174,0.13943583,0.045301378,0.004832788,0.013746291,0.15337048,0.043721717,0.063810095,0.03399684,0.02624159,0.06296402,0.074807554,0.05919095,0.015906503,0.064204045,0.09912786,-0.0022352703,0.057949822,0.051150747
disregarding,0.0020928688,-0.018482786,0.030882927,0.02776054,0.019781703,0.030410754,0.0043076817,-0.013965233,0.033030897,0.032142926,0.044753723,0.047269467,0.018434344,0.06086827,0.0062822457,0.0946223,0.0657229,-0.0061456678,-0.019434733,0.13324375,0.0151676005,0.07573629,0.054443453,-0.012098567,-0.06010388,0.03077092,0.05040081,0.13545941,0.036559056,0.09575012,0.05634436,0.10237549,0.07035618,0.02164745,0.05415246,0.13580099,0.046591625,0.07000801,0.0696822,-0.012697068,0.02907441,0.16857843,0.08100314,0.0784575,0.14163549,0.10851446,0.08439971,0.07996087,0.11247539,0.025128854,0.020819942,0.046068564,0.15118136,0.040460687,0.0799954,0.09700479,0.12642707,0.101151206,0.051970832,0.05407857,0.09165065,0.032968964,0.09746598,0.053711843,0.015476176,-0.0030907858,0.12204553,0.0044632107,0.0303973,0.024279661,0.14310886,0.077091955,0.0887426,0.046927474,0.0856413,0.080063835,0.083792,0.06520872,0.08303004,0.049888343,0.077233,0.023828123,0.038231853,0.07959462
ignore,0.022421462,0.012944095,0.06802763,0.07880314,0.062333554,0.056059334,0.037472453,0.008641044,0.032071497,0.025033783,0.035477597,0.04390653,0.039686196,0.061161406,-0.0070976517,0.1255803,0.13693431,0.013626761,-0.0018657355,0.15280636,0.07084151,0.06112122,0.104191855,-0.0011811832,0.020059751,0.047988825,0.058561347,0.1653054,0.074140035,0.09255153,0.018658407,0.08063675,0.14516003,0.03757365,0.05471324,0.13923207,0.0224506,0.08072407,0.12209116,0.01063359,0.034717783,0.16829544,0.08486093,0.0820022,0.11617209,0.10423194,0.08435201,0.08858095,0.054776184,0.04888977,-0.0026402907,0.097855374,0.041621406,0.023837408,0.05330735,0.124611594,0.11885908,0.14539163,0.09316067,0.14148806,0.104601726,0.09364525,0.096960574,0.05424767,0.07931162,0.032062296,0.23891705,0.05720157,0.059915442,0.073589295,0.20549612,0.028169142,-0.004404005,0.06597964,0.06601598,0.06442711,0.0037018477,0.041723616,0.027596435,0.09430593,0.06440959,0.10255121,0.054979328,0.08282
ignores,0.027983004,0.053996366,0.07487483,0.08490203,0.058866598,0.060019065,0.05873471,0.065593846,0.04516895,0.046121012,0.08074713,0.064370394,0.04720298,0.07106277,-0.0029097195,0.1330338,0.04166205,0.037310753,0.048645075,0.09207441,0.08624955,0.09646918,0.06978777,0.04993299,0.014086079,0.13329367,0.09600456,0.14019017,0.14524597,0.056115218,0.025949847,0.13606739,0.13771467,0.07095572,0.097113885,0.13210934,0.060821127,0.09356401,0.17293905,0.088171326,0.07375151,0.1739701,0.10850933,0.11599615,0.1144244,0.1286272,0.11372372,0.11558014,0.08944815,0.05137796,0.016550535,0.08746919,0.08514302,0.04032906,0.07884011,0.1904303,0.10572796,0.15863894,0.0695327,0.1394699,0.11599548,0.075421356,0.09546968,0.056153115,0.07954643,0.046184186,0.13513139,0.060997605,0.07138828,0.08659329,0.18639237,0.06735097,0.023965051,0.023161832,0.052789632,0.02997211,0.039232235,0.030127615,0.018992433,0.046646405,0.08177083,0.026200488,0.053808037,0.10720922
ignoring,0.04526148,0.03657129,0.081678756,0.07470623,0.06551424,0.06838647,0.058531947,0.03460611,0.07472106,0.04977603,0.06713213,0.078023255,0.05343628,0.07880431,0.0024635254,0.12696385,0.034147378,0.0450219,0.01721042,0.14673184,0.08692904,0.047501836,0.085338734,0.004998891,-0.017891428,0.07265507,0.03371202,0.15134567,0.04829568,0.059990402,0.05241267,0.08284015,0.11821676,0.036073714,0.08134161,0.16690882,0.08480488,0.07152436,0.08629551,0.018213898,0.029042082,0.18076283,0.07832663,0.08534428,0.13138641,0.15598321,0.10965062,0.070797764,0.08033218,0.06308209,-0.0069538793,0.11522919,0.08085556,0.05145867,0.05582293,0.115423046,0.11558873,0.15476717,0.060713384,0.16753852,0.10726158,0.07558187,0.10021893,0.042451326,0.058549073,0.031804588,0.1520697,0.04035692,0.053503484,0.052389976,0.11610256,0.101654045,0.061079334,0.045742426,0.077153906,0.07709348,0.04214823,0.0769234,0.051367894,0.08999711,0.06255776,0.076311305,0.039395474,0.102602474
ignored,0.049853686,0.04966264,0.12069402,0.11257047,0.07633651,0.08293862,0.069166765,0.058276583,0.124147266,0.10833449,0.0862088,0.09651173,0.08881125,0.121712185,0.0646694,0.13008323,0.06975317,0.044715684,-0.008937847,0.09869786,0.07662598,0.041476995,0.14360097,0.025252195,-0.024363996,0.14001942,0.061545715,0.11076016,0.10107048,0.057953723,0.06842987,0.07948418,0.10462236,0.045562092,0.11086094,0.17711201,0.033536617,0.05306472,0.080562815,-0.014578774,0.024244387,0.118803546,0.052189384,0.083854266,0.14074239,0.2207855,0.14622933,0.044941023,0.0052886964,0.05830711,-0.011022796,0.1296833,0.014033997,0.059136063,0.0015893317,0.16611993,0.104702294,0.13825294,0.07131203,0.14198944,0.10122336,0.06277717,0.081952736,0.04937641,0.03669855,0.0363798,0.1378944,0.050366823,0.0413267,0.033297606,0.12239177,0.0567184,0.05391251,0.02973935,0.035653774,0.050344065,0.065298155,0.0335841,0.016606482,0.07212356,0.07266464,0.044969194,-0.0006554444,0.024634834
